       48.650329      -87.961759     -0.29370499       0
       48.637602      -87.966735     -0.30751133       1
       48.613004      -87.976343     -0.33634520       2
       48.601129      -87.980982     -0.32274485       3
       48.588404      -87.985943     -0.34465599       4
       48.563800      -87.995534     -0.33511019       5
       48.551075      -88.000489     -0.31991291       6
       48.538348      -88.005445     -0.30888891       7
       48.514592      -88.014687     -0.31724262       8
       48.489139      -88.024582     -0.32120085       9
       48.501865      -88.019635     -0.32533360      10
       48.466230      -88.033481     -0.29951572      11
       48.451804      -88.039085     -0.33213282      12
       48.439076      -88.044027     -0.31430531      13
       48.417014      -88.052590     -0.33075571      14
       48.401739      -88.058514     -0.34452105      15
       48.389859      -88.063122     -0.33075571      16
       48.367797      -88.071670     -0.34572840      17
       48.339792      -88.082509     -0.36499643      18
       48.351673      -88.077912     -0.35544777      19
       48.319424      -88.090388     -0.37330151      20
       48.302451      -88.096946     -0.40068483      21
       48.290571      -88.101533     -0.39650631      22
       48.270201      -88.109398     -0.35666037      23
       48.252377      -88.116276     -0.33734941      24
       48.240495      -88.120855     -0.35528326      25
       48.220972      -88.128376     -0.34414005      26
       48.191263      -88.139811     -0.34994555      27
       48.203146      -88.135239     -0.32237625      28
       48.172591      -88.146993     -0.36369276      29
       48.153917      -88.154172     -0.35139608      30
       48.141183      -88.159065     -0.35269690      31
       48.123359      -88.165910     -0.35269690      32
       48.103838      -88.173403     -0.34581518      33
       48.091104      -88.178290     -0.36087275      34
       48.074128      -88.184801     -0.36087275      35
       48.041875      -88.197168     -0.35784149      36
       48.054610      -88.192288     -0.35794401      37
       48.025745      -88.203347     -0.35242701      38
       48.004525      -88.211474     -0.36198187      39
       47.992641      -88.216024     -0.37989712      40
       47.976511      -88.222194     -0.34125900      41
       47.954442      -88.230630     -0.34148979      42
       47.942556      -88.235168     -0.33433914      43
       47.927274      -88.241001     -0.32754755      44
       47.893311      -88.253945     -0.32741117      45
       47.905198      -88.249414     -0.32616329      46
       47.878878      -88.259441     -0.31383133      47
       47.855103      -88.268495     -0.32741117      48
       47.843216      -88.273021     -0.30967379      49
       47.829633      -88.278192     -0.32754755      50
       47.805861      -88.287240     -0.32502794      51
       47.793126      -88.292086     -0.33043909      52
       47.780392      -88.296930     -0.35114622      53
       47.756623      -88.305957     -0.32905579      54
       47.731999      -88.315300     -0.33193493      55
       47.707374      -88.324636     -0.32513809      56
       47.693788      -88.329781     -0.30565548      57
       47.681899      -88.334285     -0.29872513      58
       47.658121      -88.343287     -0.27666950      59
       47.644533      -88.348427     -0.27682209      60
       47.632645      -88.352924     -0.30993795      61
       47.609715      -88.361590     -0.28762293      62
       47.582542      -88.371854     -0.28251219      63
       47.594432      -88.367365     -0.31396246      64
       47.560458      -88.380189     -0.29068804      65
       47.545170      -88.385956     -0.27697039      66
       47.532433      -88.390759     -0.26170731      67
       47.511199      -88.398764     -0.25892782      68
       47.495060      -88.404844     -0.27127123      69
       47.483169      -88.409323     -0.26309538      70
       47.468728      -88.414759     -0.26587343      71
