       48.650329      -87.961759     -0.29370499           0
       48.649481      -87.962091     -0.30188084           1
       48.648632      -87.962422     -0.30188084           1
       48.647784      -87.962753     -0.29370499           1
       48.646936      -87.963085     -0.29370499           1
       48.646088      -87.963416     -0.29370499           1
       48.645239      -87.963748     -0.30188084           1
       48.644391      -87.964079     -0.28552961           1
       48.643542      -87.964412     -0.30188084           1
       48.642694      -87.964744     -0.29370499           1
       48.641845      -87.965075     -0.32386303           1
       48.640997      -87.965407     -0.30751133           1
       48.640148      -87.965739     -0.31568718           1
       48.639299      -87.966071     -0.31568718           1
       48.638450      -87.966404     -0.30751133           1
       48.637602      -87.966735     -0.30751133           1
       48.636754      -87.967067     -0.31568718           1
       48.635905      -87.967398     -0.30751133           1
       48.635057      -87.967730     -0.31568718           1
       48.634209      -87.968061     -0.30751133           1
       48.633361      -87.968392     -0.31844282           1
       48.632513      -87.968723     -0.31026697           1
       48.631665      -87.969055     -0.32661867           1
       48.630816      -87.969387     -0.31026697           1
       48.629968      -87.969720     -0.31844282           1
       48.629120      -87.970052     -0.31844282           1
       48.628271      -87.970383     -0.31844282           1
       48.627423      -87.970714     -0.31715775           1
       48.626575      -87.971045     -0.31715775           1
       48.625727      -87.971375     -0.30898237           1
       48.624879      -87.971706     -0.31715775           2
       48.624030      -87.972038     -0.32816935           2
       48.623182      -87.972370     -0.32816935           2
       48.622333      -87.972701     -0.33634520           2
       48.621486      -87.973032     -0.32816935           2
       48.620638      -87.973363     -0.31999397           2
       48.619790      -87.973694     -0.32816935           2
       48.618942      -87.974026     -0.32816935           2
       48.618094      -87.974357     -0.31999397           2
       48.617246      -87.974687     -0.31999397           2
       48.616397      -87.975019     -0.32816935           2
       48.615548      -87.975351     -0.33634520           2
       48.614700      -87.975682     -0.32816935           2
       48.613852      -87.976012     -0.32816935           2
       48.613004      -87.976343     -0.33634520           2
       48.612156      -87.976675     -0.31999397           2
       48.611308      -87.977007     -0.33634520           2
       48.610460      -87.977339     -0.33634520           2
       48.609611      -87.977670     -0.32816935           2
       48.608763      -87.978001     -0.32816935           2
       48.607914      -87.978332     -0.31181812           2
       48.607066      -87.978663     -0.33634520           2
       48.606218      -87.978994     -0.33092022           2
       48.605370      -87.979326     -0.32274485           2
       48.604521      -87.979657     -0.33092022           2
       48.603673      -87.979987     -0.33092022           2
       48.602825      -87.980318     -0.32274485           2
       48.601977      -87.980651     -0.32274485           2
       48.601129      -87.980982     -0.32274485           3
       48.600281      -87.981312     -0.33909607           4
       48.599432      -87.981642     -0.32274485           4
       48.598585      -87.981973     -0.32274485           4
       48.597736      -87.982304     -0.33092022           4
       48.596887      -87.982635     -0.33916521           4
       48.596039      -87.982967     -0.33098984           4
       48.595191      -87.983298     -0.33367157           4
       48.594343      -87.983628     -0.33367157           4
       48.593495      -87.983958     -0.33367157           4
       48.592646      -87.984290     -0.34184742           4
       48.591798      -87.984621     -0.32549620           4
       48.590950      -87.984952     -0.32549620           4
       48.590102      -87.985283     -0.32549620           4
       48.589253      -87.985613     -0.33367157           4
       48.588404      -87.985943     -0.34465599           4
       48.587555      -87.986274     -0.34465599           4
       48.586707      -87.986605     -0.34465599           4
       48.585859      -87.986935     -0.33648062           4
       48.585010      -87.987267     -0.34465599           4
       48.584163      -87.987598     -0.35283184           4
       48.583315      -87.987929     -0.35283184           4
       48.582466      -87.988259     -0.33648062           4
       48.581617      -87.988589     -0.34465599           4
       48.580769      -87.988920     -0.34465599           4
       48.579921      -87.989251     -0.34465599           4
       48.579073      -87.989582     -0.32954407           4
       48.578225      -87.989913     -0.32954407           4
       48.577376      -87.990244     -0.32954407           4
       48.576527      -87.990575     -0.32954407           4
       48.575678      -87.990905     -0.31319284           5
       48.574831      -87.991236     -0.32954407           5
       48.573982      -87.991567     -0.33771992           5
       48.573134      -87.991898     -0.33771992           5
       48.572284      -87.992229     -0.33771992           5
       48.571436      -87.992559     -0.30501699           5
       48.570587      -87.992890     -0.34328556           5
       48.569739      -87.993220     -0.33511019           5
       48.568891      -87.993551     -0.33511019           5
       48.568043      -87.993881     -0.32693434           5
       48.567194      -87.994211     -0.32693434           5
       48.566346      -87.994542     -0.34328556           5
       48.565497      -87.994872     -0.34328556           5
       48.564649      -87.995203     -0.34328556           5
       48.563800      -87.995534     -0.33511019           5
       48.562952      -87.995864     -0.33916521           5
       48.562104      -87.996194     -0.33916521           5
       48.561255      -87.996525     -0.32411766           5
       48.560406      -87.996856     -0.34046888           5
       48.559558      -87.997187     -0.33229303           5
       48.558710      -87.997517     -0.33229303           5
       48.557862      -87.997846     -0.33229303           5
       48.557014      -87.998177     -0.32411766           5
       48.556166      -87.998507     -0.32411766           5
       48.555318      -87.998838     -0.33229303           5
       48.554469      -87.999169     -0.32411766           5
       48.553620      -87.999499     -0.34046888           5
       48.552772      -87.999829     -0.33229303           5
       48.551924      -88.000159     -0.30356169           5
       48.551075      -88.000489     -0.31991291           6
       48.550227      -88.000820     -0.31991291           7
       48.549379      -88.001151     -0.31991291           7
       48.548530      -88.001481     -0.30356169           7
       48.547681      -88.001811     -0.30356169           7
       48.546833      -88.002141     -0.31991291           7
       48.545985      -88.002471     -0.31173754           7
       48.545136      -88.002802     -0.31173754           7
       48.544288      -88.003132     -0.31173754           7
       48.543441      -88.003463     -0.29253769           7
       48.542592      -88.003793     -0.30888891           7
       48.541744      -88.004124     -0.30888891           7
       48.540895      -88.004454     -0.30888891           7
       48.540047      -88.004784     -0.30071354           7
       48.539197      -88.005114     -0.30071354           7
       48.538348      -88.005445     -0.30888891           7
       48.537500      -88.005775     -0.30071354           7
       48.536652      -88.006105     -0.30071354           7
       48.535804      -88.006434     -0.30888891           7
       48.534956      -88.006764     -0.30071354           7
       48.534108      -88.007094     -0.30071354           7
       48.533259      -88.007426     -0.30888891           7
       48.532410      -88.007756     -0.30071354           7
       48.531562      -88.008086     -0.30888891           7
       48.530713      -88.008416     -0.29805279           7
       48.529865      -88.008746     -0.32257986           7
       48.529016      -88.009076     -0.31440401           7
       48.528168      -88.009407     -0.31440401           7
       48.527320      -88.009737     -0.32257986           7
       48.526472      -88.010066     -0.31440401           8
       48.525624      -88.010395     -0.33634520           8
       48.524775      -88.010725     -0.33634520           8
       48.523926      -88.011056     -0.33634520           8
       48.523078      -88.011386     -0.33634520           8
       48.522229      -88.011717     -0.33634520           8
       48.521381      -88.012047     -0.33634520           8
       48.520532      -88.012377     -0.32816935           8
       48.519683      -88.012708     -0.32816935           8
       48.518834      -88.013038     -0.33634520           8
       48.517986      -88.013366     -0.32816935           8
       48.517137      -88.013696     -0.33634520           8
       48.516288      -88.014026     -0.33359385           8
       48.515440      -88.014356     -0.34176970           8
       48.514592      -88.014687     -0.31724262           8
       48.513744      -88.015017     -0.32541800           8
       48.512895      -88.015347     -0.32541800           8
       48.512047      -88.015677     -0.32541800           8
       48.511198      -88.016007     -0.33359385           8
       48.510350      -88.016337     -0.32541800           8
       48.509502      -88.016667     -0.33359385           8
       48.508653      -88.016997     -0.33359385           8
       48.507805      -88.017327     -0.32541800           8
       48.506957      -88.017657     -0.31715775           8
       48.506107      -88.017987     -0.31715775           8
       48.505258      -88.018317     -0.31715775           8
       48.504410      -88.018646     -0.32533360           8
       48.503562      -88.018975     -0.32533360           8
       48.502714      -88.019305     -0.32533360          10
       48.501865      -88.019635     -0.32533360          10
       48.501017      -88.019965     -0.30898237          10
       48.500169      -88.020295     -0.31715775           9
       48.499320      -88.020624     -0.31715775           9
       48.498472      -88.020953     -0.34176970           9
       48.497623      -88.021284     -0.33359385           9
       48.496775      -88.021615     -0.34176970           9
       48.495927      -88.021945     -0.34176970           9
       48.495078      -88.022273     -0.33359385           9
       48.494230      -88.022603     -0.33359385           9
       48.493382      -88.022932     -0.33359385           9
       48.492533      -88.023262     -0.31724262           9
       48.491685      -88.023592     -0.34176970           9
       48.490837      -88.023921     -0.34176970           9
       48.489988      -88.024251     -0.32541800           9
       48.489139      -88.024582     -0.32120085           9
       48.488291      -88.024912     -0.32937670           9
       48.487442      -88.025241     -0.33755255           9
       48.486595      -88.025570     -0.32120085           9
       48.485746      -88.025900     -0.32120085           9
       48.484898      -88.026230     -0.32937670           9
       48.484049      -88.026560     -0.32937670           9
       48.483201      -88.026890     -0.32937670           9
       48.482351      -88.027219     -0.31302500           9
       48.481502      -88.027548     -0.32120085           9
       48.480654      -88.027878     -0.31302500           9
       48.479806      -88.028207     -0.32411766           9
       48.478957      -88.028537     -0.32411766           9
       48.478109      -88.028866     -0.31594181          11
       48.477262      -88.029197     -0.31594181          11
       48.476413      -88.029527     -0.30776596          11
       48.475565      -88.029856     -0.30776596          11
       48.474715      -88.030185     -0.30776596          11
       48.473867      -88.030514     -0.29959011          11
       48.473018      -88.030844     -0.29959011          11
       48.472170      -88.031175     -0.30776596          11
       48.471322      -88.031505     -0.29951572          11
       48.470474      -88.031833     -0.30769157          11
       48.469625      -88.032162     -0.29951572          11
       48.468775      -88.032492     -0.31586742          11
       48.467926      -88.032822     -0.31586742          11
       48.467078      -88.033151     -0.29951572          11
       48.466230      -88.033481     -0.29951572          11
       48.465381      -88.033810     -0.30218267          11
       48.464533      -88.034140     -0.30218267          11
       48.463684      -88.034470     -0.30218267          11
       48.462837      -88.034801     -0.29400682          11
       48.461988      -88.035130     -0.30484962          11
       48.461139      -88.035460     -0.30484962          11
       48.460291      -88.035789     -0.31302500          11
       48.459442      -88.036119     -0.31302500          11
       48.458593      -88.036448     -0.32120085          11
       48.457744      -88.036778     -0.32937670          11
       48.456896      -88.037107     -0.32937670          11
       48.456048      -88.037437     -0.32937670          11
       48.455200      -88.037767     -0.33755255          11
       48.454351      -88.038097     -0.33755255          11
       48.453502      -88.038427     -0.34030867          12
       48.452652      -88.038756     -0.33213282          12
       48.451804      -88.039085     -0.33213282          12
       48.450955      -88.039414     -0.33213282          12
       48.450107      -88.039744     -0.32395697          12
       48.449259      -88.040074     -0.33213282          13
       48.448411      -88.040404     -0.32395697          13
       48.447563      -88.040732     -0.33213282          13
       48.446715      -88.041061     -0.33213282          13
       48.445866      -88.041391     -0.33213282          13
       48.445017      -88.041722     -0.33213282          13
       48.444168      -88.042051     -0.32248116          13
       48.443320      -88.042380     -0.32248116          13
       48.442472      -88.042709     -0.31430531          13
       48.441624      -88.043037     -0.33065701          13
       48.440775      -88.043367     -0.31430531          13
       48.439926      -88.043697     -0.33065701          13
       48.439076      -88.044027     -0.31430531          13
       48.438228      -88.044356     -0.32248116          13
       48.437379      -88.044685     -0.32248116          13
       48.436530      -88.045014     -0.33065701          13
       48.435683      -88.045344     -0.32248116          13
       48.434834      -88.045674     -0.31005669          13
       48.433986      -88.046004     -0.31005669          13
       48.433137      -88.046333     -0.33065701          13
       48.432289      -88.046663     -0.32248116          13
       48.431440      -88.046992     -0.32248116          13
       48.430591      -88.047321     -0.32248116          13
       48.429743      -88.047650     -0.32248116          13
       48.428894      -88.047980     -0.33065701          14
       48.428045      -88.048310     -0.30612946          14
       48.427197      -88.048640     -0.32248116          14
       48.426348      -88.048969     -0.32937670          14
       48.425500      -88.049297     -0.32937670          14
       48.424650      -88.049625     -0.32937670          14
       48.423802      -88.049954     -0.32937670          14
       48.422953      -88.050283     -0.32120085          14
       48.422104      -88.050612     -0.31302500          14
       48.421255      -88.050942     -0.33755255          14
       48.420407      -88.051272     -0.32937670          14
       48.419559      -88.051602     -0.33755255          14
       48.418711      -88.051931     -0.32937670          14
       48.417862      -88.052259     -0.32937670          14
       48.417014      -88.052590     -0.33075571          14
       48.416165      -88.052920     -0.33075571          14
       48.415316      -88.053249     -0.32257986          14
       48.414467      -88.053577     -0.33075571          14
       48.413619      -88.053906     -0.33075571          14
       48.412770      -88.054235     -0.33075571          14
       48.411923      -88.054565     -0.33075571          14
       48.411074      -88.054894     -0.32257986          14
       48.410225      -88.055223     -0.32257986          14
       48.409376      -88.055552     -0.33075571          14
       48.408527      -88.055881     -0.34452105          14
       48.407678      -88.056210     -0.36087275          14
       48.406830      -88.056539     -0.33634520          14
       48.405981      -88.056869     -0.33634520          14
       48.405133      -88.057199     -0.34452105          14
       48.404285      -88.057527     -0.33634520          15
       48.403436      -88.057856     -0.33634520          15
       48.402587      -88.058185     -0.34452105          15
       48.401739      -88.058514     -0.34452105          15
       48.400891      -88.058844     -0.34452105          15
       48.400041      -88.059173     -0.35414410          15
       48.399192      -88.059503     -0.31706476          16
       48.398344      -88.059832     -0.33341646          16
       48.397496      -88.060161     -0.33341646          16
       48.396647      -88.060489     -0.32524061          16
       48.395798      -88.060818     -0.31706476          16
       48.394949      -88.061147     -0.32524061          16
       48.394101      -88.061476     -0.32524061          16
       48.393252      -88.061805     -0.32524061          16
       48.392404      -88.062134     -0.32524061          16
       48.391556      -88.062464     -0.32524061          16
       48.390708      -88.062793     -0.31706476          16
       48.389859      -88.063122     -0.33075571          16
       48.389011      -88.063451     -0.33075571          16
       48.388162      -88.063780     -0.33075571          16
       48.387314      -88.064108     -0.33075571          16
       48.386465      -88.064437     -0.33075571          16
       48.385617      -88.064765     -0.33893156          16
       48.384768      -88.065095     -0.33893156          16
       48.383920      -88.065423     -0.33075571          16
       48.383072      -88.065752     -0.32257986          16
       48.382223      -88.066080     -0.33075571          16
       48.381374      -88.066410     -0.33479452          16
       48.380526      -88.066739     -0.33479452          16
       48.379677      -88.067068     -0.32661867          17
       48.378828      -88.067397     -0.33479452          17
       48.377980      -88.067726     -0.34297037          17
       48.377132      -88.068055     -0.33479452          17
       48.376284      -88.068382     -0.33479452          17
       48.375435      -88.068711     -0.32661867          17
       48.374586      -88.069041     -0.34297037          17
       48.373737      -88.069370     -0.33479452          17
       48.372888      -88.069699     -0.34297037          17
       48.372040      -88.070027     -0.34297037          17
       48.371191      -88.070356     -0.33479452          17
       48.370343      -88.070685     -0.33479452          17
       48.369495      -88.071013     -0.33479452          17
       48.368646      -88.071341     -0.33479452          17
       48.367797      -88.071670     -0.34572840          17
       48.366947      -88.071999     -0.34572840          17
       48.366099      -88.072327     -0.33755255          17
       48.365251      -88.072656     -0.33755255          17
       48.364402      -88.072984     -0.33755255          17
       48.363553      -88.073314     -0.35269690          17
       48.362704      -88.073642     -0.35269690          17
       48.361856      -88.073969     -0.35269690          17
       48.361008      -88.074297     -0.35269690          17
       48.360159      -88.074626     -0.35269690          17
       48.359310      -88.074955     -0.35269690          17
       48.358461      -88.075284     -0.35269690          17
       48.357612      -88.075611     -0.35269690          17
       48.356764      -88.075940     -0.35269690          17
       48.355915      -88.076269     -0.35269690          17
       48.355067      -88.076597     -0.35269690          19
       48.354218      -88.076925     -0.36362362          19
       48.353370      -88.077254     -0.36362362          19
       48.352521      -88.077583     -0.35544777          19
       48.351673      -88.077912     -0.35544777          19
       48.350824      -88.078241     -0.35544777          19
       48.349975      -88.078570     -0.34727192          19
       48.349126      -88.078898     -0.36362362          19
       48.348278      -88.079226     -0.36362362          18
       48.347430      -88.079554     -0.34727192          18
       48.346582      -88.079881     -0.35544777          18
       48.345733      -88.080210     -0.36362362          18
       48.344884      -88.080539     -0.36499643          18
       48.344035      -88.080867     -0.36499643          18
       48.343186      -88.081195     -0.35682058          18
       48.342338      -88.081523     -0.36499643          18
       48.341490      -88.081851     -0.36499643          18
       48.340641      -88.082180     -0.35682058          18
       48.339792      -88.082509     -0.36499643          18
       48.338943      -88.082838     -0.35682058          18
       48.338093      -88.083166     -0.36499643          18
       48.337245      -88.083495     -0.36499643          18
       48.336397      -88.083823     -0.36231995          18
       48.335549      -88.084151     -0.36231995          18
       48.334700      -88.084480     -0.38010454          18
       48.333852      -88.084808     -0.37192869          18
       48.333003      -88.085136     -0.38010454          18
       48.332155      -88.085464     -0.38010454          18
       48.331306      -88.085792     -0.36375284          20
       48.330456      -88.086121     -0.37192869          20
       48.329608      -88.086450     -0.37192869          20
       48.328759      -88.086778     -0.37192869          20
       48.327910      -88.087105     -0.37192869          20
       48.327061      -88.087433     -0.38147736          20
       48.326214      -88.087762     -0.37330151          20
       48.325365      -88.088091     -0.37330151          20
       48.324516      -88.088418     -0.37330151          20
       48.323668      -88.088746     -0.37330151          20
       48.322820      -88.089075     -0.38147736          20
       48.321971      -88.089404     -0.38147736          20
       48.321122      -88.089732     -0.37330151          20
       48.320272      -88.090060     -0.38147736          20
       48.319424      -88.090388     -0.37330151          20
       48.318576      -88.090715     -0.39795065          20
       48.317728      -88.091042     -0.38159895          20
       48.316880      -88.091370     -0.39795065          20
       48.316031      -88.091698     -0.38977480          20
       48.315182      -88.092026     -0.39795065          20
       48.314332      -88.092354     -0.38977480          20
       48.313484      -88.092683     -0.39795065          20
       48.312636      -88.093011     -0.39795065          20
       48.311787      -88.093338     -0.39795065          20
       48.310937      -88.093665     -0.38977480          20
       48.310089      -88.093994     -0.39795065          20
       48.309241      -88.094322     -0.37741613          20
       48.308392      -88.094649     -0.36106443          20
       48.307543      -88.094978     -0.37741613          20
       48.306695      -88.095307     -0.36924028          21
       48.305847      -88.095635     -0.37741613          21
       48.304999      -88.095962     -0.36924028          21
       48.304149      -88.096291     -0.37741613          21
       48.303300      -88.096619     -0.36924028          21
       48.302451      -88.096946     -0.40068483          21
       48.301603      -88.097274     -0.40886068          21
       48.300755      -88.097601     -0.40886068          21
       48.299906      -88.097930     -0.40070438          21
       48.299058      -88.098257     -0.41705608          21
       48.298208      -88.098585     -0.40888023          22
       48.297359      -88.098913     -0.41705608          22
       48.296511      -88.099240     -0.41705608          22
       48.295663      -88.099568     -0.42523193          22
       48.294814      -88.099896     -0.42523193          22
       48.293965      -88.100224     -0.43340778          22
       48.293116      -88.100552     -0.41705608          22
       48.292268      -88.100878     -0.41705608          22
       48.291419      -88.101205     -0.38015461          22
       48.290571      -88.101533     -0.39650631          22
       48.289722      -88.101860     -0.39650631          22
       48.288873      -88.102189     -0.39650631          22
       48.288024      -88.102518     -0.38833046          22
       48.287175      -88.102844     -0.39650631          22
       48.286327      -88.103172     -0.38833046          22
       48.285478      -88.103499     -0.39650631          22
       48.284629      -88.103827     -0.39650631          22
       48.283780      -88.104156     -0.39650631          22
       48.282932      -88.104484     -0.38833046          22
       48.282084      -88.104812     -0.35957193          23
       48.281235      -88.105140     -0.37592363          23
       48.280386      -88.105467     -0.36774778          23
       48.279537      -88.105795     -0.37592363          23
       48.278688      -88.106124     -0.36774778          23
       48.277839      -88.106451     -0.36774778          23
       48.276991      -88.106779     -0.37592363          23
       48.276142      -88.107106     -0.36774778          23
       48.275292      -88.107434     -0.36774778          23
       48.274444      -88.107761     -0.38409948          23
       48.273595      -88.108088     -0.34848452          23
       48.272747      -88.108416     -0.35666037          23
       48.271899      -88.108744     -0.34030867          23
       48.271050      -88.109071     -0.35666037          23
       48.270201      -88.109398     -0.35666037          23
       48.269353      -88.109726     -0.34848452          23
       48.268504      -88.110054     -0.35666037          23
       48.267655      -88.110382     -0.36483622          23
       48.266806      -88.110710     -0.34848452          23
       48.265958      -88.111038     -0.34848452          23
       48.265109      -88.111365     -0.34848452          23
       48.264260      -88.111693     -0.33193493          23
       48.263411      -88.112020     -0.33193493          23
       48.262562      -88.112348     -0.33193493          23
       48.261714      -88.112675     -0.33193493          23
       48.260866      -88.113002     -0.33193493          23
       48.260016      -88.113329     -0.33193493          23
       48.259167      -88.113657     -0.33193493          23
       48.258318      -88.113984     -0.33193493          23
       48.257469      -88.114313     -0.32375908          24
       48.256621      -88.114641     -0.34011078          24
       48.255772      -88.114968     -0.32375908          24
       48.254924      -88.115293     -0.32917356          24
       48.254074      -88.115621     -0.32099771          24
       48.253225      -88.115948     -0.32099771          24
       48.252377      -88.116276     -0.33734941          24
       48.251528      -88.116603     -0.33734941          24
       48.250680      -88.116930     -0.33734941          24
       48.249831      -88.117257     -0.32917356          24
       48.248983      -88.117584     -0.33734941          24
       48.248134      -88.117911     -0.32917356          24
       48.247285      -88.118239     -0.33734941          25
       48.246435      -88.118567     -0.34710741          25
       48.245587      -88.118894     -0.34710741          25
       48.244738      -88.119221     -0.34710741          25
       48.243889      -88.119548     -0.35528326          25
       48.243041      -88.119874     -0.34710741          25
       48.242193      -88.120201     -0.35528326          25
       48.241344      -88.120528     -0.34710741          25
       48.240495      -88.120855     -0.35528326          25
       48.239646      -88.121183     -0.34710741          25
       48.238797      -88.121510     -0.34710741          25
       48.237948      -88.121837     -0.35528326          25
       48.237099      -88.122166     -0.35666037          25
       48.236250      -88.122492     -0.34710741          25
       48.235402      -88.122819     -0.35528326          25
       48.234553      -88.123146     -0.33075571          25
       48.233705      -88.123472     -0.35528326          25
       48.232856      -88.123798     -0.35528326          26
       48.232007      -88.124125     -0.35528326          26
       48.231159      -88.124452     -0.35528326          26
       48.230309      -88.124779     -0.35528326          26
       48.229460      -88.125106     -0.35528326          26
       48.228611      -88.125433     -0.32778835          26
       48.227763      -88.125760     -0.33596420          26
       48.226913      -88.126087     -0.33596420          26
       48.226065      -88.126414     -0.33596420          26
       48.225217      -88.126742     -0.32778835          26
       48.224367      -88.127068     -0.32778835          26
       48.223519      -88.127395     -0.33596420          26
       48.222670      -88.127721     -0.32778835          26
       48.221821      -88.128049     -0.33596420          26
       48.220972      -88.128376     -0.34414005          26
       48.220123      -88.128702     -0.32778835          26
       48.219275      -88.129028     -0.34976816          26
       48.218426      -88.129355     -0.34159231          26
       48.217577      -88.129682     -0.34976816          26
       48.216727      -88.130009     -0.34976816          26
       48.215879      -88.130336     -0.34976816          26
       48.215031      -88.130664     -0.34976816          26
       48.214182      -88.130991     -0.34976816          26
       48.213333      -88.131317     -0.34159231          26
       48.212485      -88.131644     -0.34976816          26
       48.211635      -88.131970     -0.34159231          26
       48.210786      -88.132297     -0.34159231          26
       48.209936      -88.132624     -0.34011078          26
       48.209087      -88.132951     -0.34011078          26
       48.208239      -88.133277     -0.33193493          28
       48.207390      -88.133604     -0.34828663          28
       48.206542      -88.133931     -0.33193493          28
       48.205693      -88.134259     -0.33193493          28
       48.204844      -88.134586     -0.33193493          28
       48.203995      -88.134913     -0.33055210          28
       48.203146      -88.135239     -0.32237625          28
       48.202297      -88.135565     -0.33872795          28
       48.201448      -88.135892     -0.36079216          28
       48.200600      -88.136219     -0.35261631          28
       48.199751      -88.136545     -0.36079216          28
       48.198901      -88.136871     -0.35261631          28
       48.198052      -88.137199     -0.35261631          28
       48.197203      -88.137525     -0.34444046          27
       48.196354      -88.137852     -0.34444046          27
       48.195506      -88.138178     -0.35261631          27
       48.194657      -88.138505     -0.34444046          27
       48.193809      -88.138832     -0.34444046          27
       48.192961      -88.139158     -0.34444046          27
       48.192111      -88.139484     -0.34176970          27
       48.191263      -88.139811     -0.34994555          27
       48.190414      -88.140138     -0.34994555          27
       48.189565      -88.140465     -0.35812140          27
       48.188716      -88.140791     -0.34176970          27
       48.187868      -88.141117     -0.34176970          27
       48.187019      -88.141444     -0.34994555          27
       48.186170      -88.141771     -0.35812140          27
       48.185321      -88.142098     -0.34176970          27
       48.184472      -88.142425     -0.34994555          29
       48.183624      -88.142751     -0.35544777          29
       48.182775      -88.143077     -0.35544777          29
       48.181927      -88.143403     -0.35544777          29
       48.181079      -88.143729     -0.34727192          29
       48.180230      -88.144057     -0.35544777          29
       48.179381      -88.144383     -0.34727192          29
       48.178532      -88.144709     -0.35544777          29
       48.177683      -88.145035     -0.35544777          29
       48.176835      -88.145362     -0.35544777          29
       48.175986      -88.145688     -0.36362362          29
       48.175137      -88.146014     -0.36362362          29
       48.174288      -88.146341     -0.36369276          29
       48.173440      -88.146667     -0.36369276          29
       48.172591      -88.146993     -0.36369276          29
       48.171743      -88.147320     -0.36369276          29
       48.170893      -88.147645     -0.38828039          29
       48.170044      -88.147972     -0.37192869          29
       48.169195      -88.148299     -0.36375284          29
       48.168347      -88.148625     -0.36375284          29
       48.167498      -88.148950     -0.36375284          29
       48.166649      -88.149276     -0.38010454          29
       48.165800      -88.149603     -0.37192869          29
       48.164952      -88.149929     -0.35420561          29
       48.164103      -88.150256     -0.37055731          29
       48.163255      -88.150584     -0.37055731          29
       48.162406      -88.150910     -0.37055731          29
       48.161557      -88.151236     -0.37055731          29
       48.160708      -88.151562     -0.36238146          29
       48.159859      -88.151888     -0.37055731          30
       48.159011      -88.152215     -0.37055731          30
       48.158161      -88.152540     -0.37055731          30
       48.157312      -88.152866     -0.37055731          30
       48.156464      -88.153191     -0.35957193          30
       48.155614      -88.153519     -0.35957193          30
       48.154765      -88.153846     -0.35139608          30
       48.153917      -88.154172     -0.35139608          30
       48.153067      -88.154500     -0.35957193          30
       48.152218      -88.154826     -0.35957193          30
       48.151370      -88.155151     -0.35139608          30
       48.150521      -88.155476     -0.35139608          30
       48.149672      -88.155802     -0.35957193          30
       48.148823      -88.156128     -0.35139608          30
       48.147974      -88.156454     -0.35957193          30
       48.147125      -88.156781     -0.35269690          31
       48.146276      -88.157108     -0.35269690          31
       48.145427      -88.157434     -0.34452105          31
       48.144578      -88.157760     -0.35269690          31
       48.143730      -88.158086     -0.34452105          31
       48.142881      -88.158412     -0.35269690          31
       48.142032      -88.158739     -0.34452105          31
       48.141183      -88.159065     -0.35269690          31
       48.140334      -88.159391     -0.34452105          31
       48.139484      -88.159717     -0.34452105          31
       48.138636      -88.160043     -0.34444046          31
       48.137787      -88.160369     -0.35544777          31
       48.136938      -88.160696     -0.35544777          31
       48.136089      -88.161023     -0.35544777          31
       48.135240      -88.161349     -0.34727192          32
       48.134392      -88.161675     -0.35544777          32
       48.133544      -88.162000     -0.35544777          32
       48.132696      -88.162326     -0.34727192          32
       48.131847      -88.162651     -0.35544777          32
       48.130998      -88.162977     -0.34727192          32
       48.130149      -88.163303     -0.35544777          32
       48.129301      -88.163629     -0.36087275          32
       48.128452      -88.163955     -0.34452105          32
       48.127603      -88.164281     -0.35269690          32
       48.126755      -88.164607     -0.35269690          32
       48.125906      -88.164933     -0.36087275          32
       48.125057      -88.165259     -0.35269690          32
       48.124208      -88.165584     -0.35269690          32
       48.123359      -88.165910     -0.35269690          32
       48.122510      -88.166237     -0.35269690          32
       48.121662      -88.166564     -0.34452105          32
       48.120813      -88.166888     -0.34452105          32
       48.119965      -88.167214     -0.34581518          32
       48.119116      -88.167540     -0.34581518          32
       48.118267      -88.167865     -0.34581518          32
       48.117419      -88.168192     -0.34581518          32
       48.116570      -88.168518     -0.34581518          32
       48.115721      -88.168844     -0.34581518          32
       48.114872      -88.169169     -0.33763933          32
       48.114024      -88.169495     -0.33763933          32
       48.113175      -88.169821     -0.34581518          32
       48.112326      -88.170145     -0.34581518          32
       48.111477      -88.170471     -0.34994555          32
       48.110628      -88.170798     -0.34994555          33
       48.109779      -88.171124     -0.34994555          33
       48.108930      -88.171450     -0.34176970          33
       48.108082      -88.171775     -0.34994555          33
       48.107233      -88.172100     -0.34176970          33
       48.106385      -88.172427     -0.34994555          33
       48.105535      -88.172752     -0.34994555          33
       48.104687      -88.173077     -0.34581518          33
       48.103838      -88.173403     -0.34581518          33
       48.102990      -88.173729     -0.35399103          33
       48.102141      -88.174055     -0.35674620          33
       48.101292      -88.174380     -0.34039450          33
       48.100442      -88.174707     -0.34857035          33
       48.099592      -88.175031     -0.34039450          33
       48.098744      -88.175357     -0.34857035          33
       48.097895      -88.175683     -0.35674620          33
       48.097047      -88.176008     -0.34857035          33
       48.096197      -88.176334     -0.35674620          34
       48.095348      -88.176660     -0.35674620          34
       48.094500      -88.176987     -0.34857035          34
       48.093651      -88.177313     -0.36087275          34
       48.092802      -88.177638     -0.36087275          34
       48.091953      -88.177964     -0.35269690          34
       48.091104      -88.178290     -0.36087275          34
       48.090256      -88.178615     -0.35269690          34
       48.089407      -88.178940     -0.35269690          34
       48.088558      -88.179268     -0.35269690          34
       48.087708      -88.179594     -0.35269690          34
       48.086860      -88.179919     -0.35269690          34
       48.086011      -88.180243     -0.36087275          35
       48.085162      -88.180568     -0.35269690          35
       48.084313      -88.180894     -0.35682058          35
       48.083464      -88.181219     -0.35682058          35
       48.082615      -88.181546     -0.35682058          35
       48.081767      -88.181872     -0.34864473          35
       48.080918      -88.182197     -0.34864473          35
       48.080069      -88.182523     -0.35682058          35
       48.079221      -88.182849     -0.36499643          35
       48.078372      -88.183174     -0.36499643          35
       48.077523      -88.183499     -0.36499643          35
       48.076675      -88.183825     -0.35682058          35
       48.075825      -88.184151     -0.36499643          35
       48.074976      -88.184476     -0.36087275          35
       48.074128      -88.184801     -0.36087275          35
       48.073279      -88.185127     -0.36087275          35
       48.072430      -88.185453     -0.35528326          35
       48.071582      -88.185779     -0.34710741          35
       48.070734      -88.186105     -0.34710741          35
       48.069886      -88.186431     -0.34710741          35
       48.069037      -88.186756     -0.35528326          35
       48.068189      -88.187082     -0.35528326          35
       48.067340      -88.187408     -0.35528326          35
       48.066491      -88.187733     -0.34552526          35
       48.065642      -88.188058     -0.33734941          35
       48.064794      -88.188384     -0.34552526          35
       48.063945      -88.188709     -0.34552526          35
       48.063097      -88.189034     -0.34552526          35
       48.062249      -88.189360     -0.34552526          37
       48.061400      -88.189685     -0.35370111          37
       48.060551      -88.190010     -0.35370111          37
       48.059701      -88.190336     -0.34552526          37
       48.058852      -88.190662     -0.35370111          37
       48.058004      -88.190987     -0.35370111          37
       48.057156      -88.191312     -0.36611986          37
       48.056307      -88.191637     -0.36611986          37
       48.055459      -88.191962     -0.35794401          37
       48.054610      -88.192288     -0.35794401          37
       48.053761      -88.192614     -0.36611986          37
       48.052912      -88.192940     -0.35794401          37
       48.052063      -88.193265     -0.35794401          37
       48.051214      -88.193590     -0.35794401          37
       48.050365      -88.193916     -0.34976816          37
       48.049516      -88.194241     -0.35794401          37
       48.048667      -88.194566     -0.35784149          37
       48.047819      -88.194892     -0.34966564          37
       48.046969      -88.195218     -0.34966564          37
       48.046120      -88.195543     -0.35784149          36
       48.045270      -88.195868     -0.35784149          36
       48.044420      -88.196194     -0.34966564          36
       48.043572      -88.196519     -0.35784149          36
       48.042723      -88.196843     -0.35784149          36
       48.041875      -88.197168     -0.35784149          36
       48.041026      -88.197495     -0.34966564          36
       48.040177      -88.197821     -0.35784149          36
       48.039327      -88.198146     -0.36198187          36
       48.038478      -88.198471     -0.35380602          36
       48.037629      -88.198796     -0.36198187          38
       48.036780      -88.199121     -0.36198187          38
       48.035931      -88.199447     -0.36198187          38
       48.035081      -88.199772     -0.36198187          38
       48.034232      -88.200097     -0.36198187          38
       48.033384      -88.200422     -0.37015724          38
       48.032536      -88.200746     -0.37015724          38
       48.031687      -88.201073     -0.36198187          38
       48.030838      -88.201398     -0.37015724          38
       48.029989      -88.201722     -0.36877823          38
       48.029140      -88.202047     -0.36060286          38
       48.028291      -88.202372     -0.34425116          38
       48.027442      -88.202697     -0.36060286          38
       48.026593      -88.203022     -0.36060286          38
       48.025745      -88.203347     -0.35242701          38
       48.024896      -88.203673     -0.36060286          38
       48.024047      -88.203999     -0.36060286          38
       48.023197      -88.204324     -0.36060286          38
       48.022349      -88.204650     -0.36060286          38
       48.021500      -88.204975     -0.35922146          38
       48.020652      -88.205300     -0.35922146          38
       48.019802      -88.205624     -0.35922146          38
       48.018953      -88.205950     -0.35104561          38
       48.018104      -88.206276     -0.35104561          38
       48.017256      -88.206601     -0.35922146          38
       48.016407      -88.206925     -0.35922146          38
       48.015558      -88.207249     -0.35922146          38
       48.014710      -88.207574     -0.35922146          38
       48.013861      -88.207898     -0.35922146          38
       48.013013      -88.208225     -0.35922146          39
       48.012164      -88.208551     -0.35231590          39
       48.011316      -88.208875     -0.36866713          39
       48.010466      -88.209200     -0.34414005          39
       48.009617      -88.209525     -0.36049128          39
       48.008768      -88.209850     -0.35231590          39
       48.007920      -88.210175     -0.36049128          39
       48.007071      -88.210500     -0.36049128          39
       48.006222      -88.210824     -0.35380602          39
       48.005374      -88.211149     -0.36198187          39
       48.004525      -88.211474     -0.36198187          39
       48.003676      -88.211800     -0.38127375          39
       48.002827      -88.212125     -0.38944912          39
       48.001978      -88.212450     -0.37309790          39
       48.001129      -88.212774     -0.38127375          39
       48.000280      -88.213100     -0.37309790          39
       47.999431      -88.213425     -0.37309790          39
       47.998583      -88.213750     -0.37309790          39
       47.997734      -88.214075     -0.36492205          39
       47.996885      -88.214401     -0.36492205          39
       47.996037      -88.214725     -0.38944912          40
       47.995188      -88.215049     -0.37309790          40
       47.994339      -88.215374     -0.37989712          40
       47.993491      -88.215699     -0.38807249          40
       47.992641      -88.216024     -0.37989712          40
       47.991792      -88.216349     -0.37989712          40
       47.990943      -88.216673     -0.37172127          40
       47.990094      -88.216998     -0.37989712          40
       47.989245      -88.217323     -0.37989712          40
       47.988396      -88.217648     -0.37989712          41
       47.987546      -88.217972     -0.37172127          41
       47.986697      -88.218298     -0.37172127          41
       47.985848      -88.218623     -0.37172127          41
       47.984999      -88.218948     -0.36060286          41
       47.984150      -88.219271     -0.35242701          41
       47.983301      -88.219595     -0.35242701          41
       47.982453      -88.219919     -0.35242701          41
       47.981604      -88.220245     -0.36060286          41
       47.980754      -88.220570     -0.36060286          41
       47.979906      -88.220895     -0.35242701          41
       47.979057      -88.221220     -0.35242701          41
       47.978209      -88.221543     -0.35242701          41
       47.977360      -88.221869     -0.36060286          41
       47.976511      -88.222194     -0.34125900          41
       47.975662      -88.222519     -0.33308315          41
       47.974813      -88.222842     -0.33308315          41
       47.973964      -88.223167     -0.33308315          41
       47.973116      -88.223493     -0.33861494          41
       47.972267      -88.223818     -0.35496616          41
       47.971417      -88.224142     -0.33043909          41
       47.970568      -88.224466     -0.33043909          41
       47.969719      -88.224791     -0.33861494          41
       47.968870      -88.225114     -0.34679079          41
       47.968021      -88.225439     -0.34679079          41
       47.967173      -88.225763     -0.33320379          41
       47.966325      -88.226089     -0.34955549          41
       47.965476      -88.226413     -0.32502794          41
       47.964628      -88.226737     -0.34955549          41
       47.963779      -88.227062     -0.34137964          42
       47.962930      -88.227388     -0.34955549          42
       47.962081      -88.227713     -0.34955549          42
       47.961232      -88.228036     -0.34137964          42
       47.960383      -88.228358     -0.34137964          42
       47.959534      -88.228682     -0.34137964          42
       47.958685      -88.229007     -0.34966564          42
       47.957836      -88.229333     -0.34966564          42
       47.956988      -88.229656     -0.34966564          42
       47.956140      -88.229980     -0.34966564          42
       47.955291      -88.230305     -0.34966564          42
       47.954442      -88.230630     -0.34148979          42
       47.953592      -88.230954     -0.34966564          42
       47.952743      -88.231278     -0.34148979          42
       47.951894      -88.231602     -0.34148979          42
       47.951045      -88.231926     -0.34966564          42
       47.950197      -88.232251     -0.34148979          42
       47.949348      -88.232575     -0.32616329          42
       47.948500      -88.232900     -0.31798744          42
       47.947651      -88.233225     -0.32616329          42
       47.946802      -88.233549     -0.32616329          42
       47.945953      -88.233873     -0.31798744          42
       47.945103      -88.234196     -0.31798744          43
       47.944254      -88.234519     -0.32616329          43
       47.943405      -88.234843     -0.31798744          43
       47.942556      -88.235168     -0.33433914          43
       47.941707      -88.235492     -0.31798744          43
       47.940858      -88.235816     -0.31798744          43
       47.940010      -88.236140     -0.32754755          43
       47.939161      -88.236464     -0.33572340          44
       47.938312      -88.236788     -0.32754755          44
       47.937463      -88.237112     -0.31937170          44
       47.936613      -88.237437     -0.32754755          44
       47.935764      -88.237761     -0.33572340          44
       47.934915      -88.238084     -0.31937170          44
       47.934066      -88.238408     -0.32754755          44
       47.933217      -88.238732     -0.31937170          44
       47.932368      -88.239057     -0.31937170          44
       47.931518      -88.239381     -0.33572340          44
       47.930670      -88.239705     -0.32754755          44
       47.929821      -88.240028     -0.32754755          44
       47.928972      -88.240351     -0.31937170          44
       47.928122      -88.240676     -0.31937170          44
       47.927274      -88.241001     -0.32754755          44
       47.926425      -88.241323     -0.34389877          44
       47.925576      -88.241646     -0.31937170          44
       47.924726      -88.241971     -0.31937170          44
       47.923876      -88.242295     -0.32754755          44
       47.923027      -88.242619     -0.31937170          44
       47.922179      -88.242943     -0.32616329          44
       47.921329      -88.243265     -0.33433914          44
       47.920480      -88.243589     -0.32616329          44
       47.919631      -88.243914     -0.32616329          44
       47.918782      -88.244237     -0.33433914          44
       47.917933      -88.244561     -0.32616329          44
       47.917083      -88.244885     -0.32616329          44
       47.916234      -88.245209     -0.32616329          44
       47.915386      -88.245533     -0.31798744          46
       47.914536      -88.245857     -0.31798744          46
       47.913687      -88.246180     -0.35370111          46
       47.912838      -88.246504     -0.34552526          46
       47.911989      -88.246827     -0.33734941          46
       47.911140      -88.247150     -0.33734941          46
       47.910292      -88.247473     -0.34552526          46
       47.909442      -88.247797     -0.34552526          46
       47.908593      -88.248121     -0.34552526          46
       47.907743      -88.248444     -0.33734941          46
       47.906895      -88.248768     -0.32616329          46
       47.906046      -88.249091     -0.31798744          46
       47.905198      -88.249414     -0.32616329          46
       47.904348      -88.249739     -0.31521559          46
       47.903499      -88.250063     -0.31521559          46
       47.902650      -88.250387     -0.32339144          46
       47.901801      -88.250711     -0.31521559          46
       47.900952      -88.251034     -0.32339144          46
       47.900103      -88.251357     -0.32339144          46
       47.899254      -88.251680     -0.32339144          46
       47.898405      -88.252004     -0.32339144          46
       47.897557      -88.252327     -0.32339144          46
       47.896708      -88.252651     -0.32339144          46
       47.895858      -88.252975     -0.31521559          46
       47.895009      -88.253297     -0.32741117          45
       47.894160      -88.253621     -0.31105947          45
       47.893311      -88.253945     -0.32741117          45
       47.892462      -88.254269     -0.31923532          45
       47.891614      -88.254592     -0.31105947          45
       47.890765      -88.254915     -0.30288363          47
       47.889916      -88.255237     -0.31923532          47
       47.889066      -88.255560     -0.30288363          47
       47.888217      -88.255884     -0.31923532          47
       47.887367      -88.256208     -0.31105947          47
       47.886519      -88.256532     -0.31383133          47
       47.885670      -88.256856     -0.31383133          47
       47.884821      -88.257179     -0.32200718          47
       47.883972      -88.257503     -0.32200718          47
       47.883122      -88.257826     -0.32200718          47
       47.882274      -88.258149     -0.32200718          47
       47.881425      -88.258472     -0.32200718          47
       47.880575      -88.258795     -0.31383133          47
       47.879727      -88.259117     -0.32200718          47
       47.878878      -88.259441     -0.31383133          47
       47.878029      -88.259766     -0.32200718          47
       47.877180      -88.260089     -0.32767296          47
       47.876330      -88.260412     -0.33584881          47
       47.875481      -88.260735     -0.33584881          47
       47.874632      -88.261058     -0.33584881          47
       47.873782      -88.261382     -0.32905579          47
       47.872933      -88.261705     -0.33723164          47
       47.872085      -88.262028     -0.34540749          47
       47.871236      -88.262352     -0.33723164          47
       47.870388      -88.262675     -0.32905579          47
       47.869538      -88.262999     -0.34540749          47
       47.868688      -88.263322     -0.33031416          47
       47.867839      -88.263646     -0.32213831          47
       47.866990      -88.263969     -0.32213831          47
       47.866142      -88.264293     -0.33031416          48
       47.865293      -88.264616     -0.32213831          48
       47.864444      -88.264939     -0.33031416          48
       47.863594      -88.265262     -0.33031416          48
       47.862746      -88.265585     -0.32213831          48
       47.861896      -88.265910     -0.33849001          48
       47.861047      -88.266233     -0.33031416          48
       47.860197      -88.266556     -0.32213831          48
       47.859349      -88.266879     -0.31105947          48
       47.858499      -88.267202     -0.31923532          48
       47.857650      -88.267525     -0.31105947          48
       47.856801      -88.267849     -0.31923532          48
       47.855951      -88.268171     -0.30288363          48
       47.855103      -88.268495     -0.32741117          48
       47.854255      -88.268819     -0.31105947          48
       47.853405      -88.269141     -0.31923532          48
       47.852556      -88.269464     -0.31105947          48
       47.851707      -88.269788     -0.31105947          48
       47.850858      -88.270113     -0.31923532          48
       47.850009      -88.270436     -0.30967379          48
       47.849160      -88.270760     -0.31784964          48
       47.848311      -88.271083     -0.30967379          48
       47.847462      -88.271405     -0.30149794          48
       47.846613      -88.271729     -0.32602549          48
       47.845763      -88.272053     -0.31784964          48
       47.844915      -88.272376     -0.31784964          48
       47.844065      -88.272698     -0.32602549          49
       47.843216      -88.273021     -0.30967379          49
       47.842368      -88.273345     -0.31784964          49
       47.841519      -88.273669     -0.31923532          50
       47.840670      -88.273991     -0.34125900          50
       47.839820      -88.274314     -0.33308315          50
       47.838972      -88.274638     -0.34125900          50
       47.838122      -88.274960     -0.33308315          50
       47.837273      -88.275283     -0.32490730          50
       47.836424      -88.275606     -0.32490730          50
       47.835575      -88.275931     -0.33308315          50
       47.834726      -88.276254     -0.32490730          50
       47.833878      -88.276577     -0.33308315          50
       47.833030      -88.276899     -0.33308315          50
       47.832180      -88.277223     -0.32754755          50
       47.831331      -88.277546     -0.32754755          50
       47.830482      -88.277869     -0.31937170          50
       47.829633      -88.278192     -0.32754755          50
       47.828784      -88.278515     -0.31937170          50
       47.827935      -88.278839     -0.32754755          50
       47.827086      -88.279163     -0.31119585          50
       47.826237      -88.279486     -0.32754755          50
       47.825388      -88.279809     -0.32754755          50
       47.824539      -88.280132     -0.31937170          50
       47.823690      -88.280454     -0.32893085          50
       47.822841      -88.280778     -0.32893085          50
       47.821992      -88.281102     -0.32893085          50
       47.821144      -88.281424     -0.32893085          50
       47.820294      -88.281747     -0.32893085          50
       47.819445      -88.282070     -0.32893085          50
       47.818596      -88.282393     -0.32075500          50
       47.817748      -88.282716     -0.32893085          50
       47.816899      -88.283039     -0.32075500          51
       47.816049      -88.283362     -0.32893085          51
       47.815199      -88.283686     -0.31257915          51
       47.814350      -88.284009     -0.33031416          51
       47.813502      -88.284332     -0.32213831          51
       47.812653      -88.284655     -0.33031416          51
       47.811804      -88.284978     -0.32213831          51
       47.810955      -88.285302     -0.31396246          51
       47.810106      -88.285625     -0.32213831          51
       47.809257      -88.285948     -0.32213831          51
       47.808408      -88.286271     -0.32213831          51
       47.807559      -88.286595     -0.33320379          51
       47.806710      -88.286918     -0.33320379          51
       47.805861      -88.287240     -0.32502794          51
       47.805012      -88.287563     -0.31811380          51
       47.804163      -88.287886     -0.31811380          51
       47.803314      -88.288209     -0.32628965          51
       47.802465      -88.288533     -0.31811380          51
       47.801616      -88.288857     -0.31811380          51
       47.800766      -88.289180     -0.32628965          51
       47.799918      -88.289503     -0.33446550          51
       47.799069      -88.289826     -0.32628965          51
       47.798220      -88.290149     -0.32628965          51
       47.797370      -88.290472     -0.31811380          51
       47.796521      -88.290795     -0.33043909          51
       47.795673      -88.291118     -0.32226324          51
       47.794824      -88.291441     -0.33043909          51
       47.793975      -88.291764     -0.31408739          52
       47.793126      -88.292086     -0.33043909          52
       47.792277      -88.292409     -0.32226324          53
       47.791428      -88.292733     -0.32226324          53
       47.790580      -88.293055     -0.33043909          53
       47.789730      -88.293378     -0.32226324          53
       47.788881      -88.293700     -0.32226324          53
       47.788032      -88.294023     -0.32226324          53
       47.787183      -88.294347     -0.34297037          53
       47.786334      -88.294670     -0.34297037          53
       47.785486      -88.294992     -0.33479452          53
       47.784637      -88.295315     -0.34297037          53
       47.783788      -88.295638     -0.34297037          53
       47.782939      -88.295960     -0.35114622          53
       47.782091      -88.296283     -0.34297037          53
       47.781241      -88.296607     -0.34297037          53
       47.780392      -88.296930     -0.35114622          53
       47.779544      -88.297252     -0.34297037          53
       47.778694      -88.297574     -0.32226324          53
       47.777845      -88.297897     -0.32226324          53
       47.776996      -88.298219     -0.32226324          53
       47.776148      -88.298541     -0.32226324          53
       47.775299      -88.298864     -0.32226324          53
       47.774451      -88.299187     -0.33043909          53
       47.773602      -88.299509     -0.31811380          53
       47.772753      -88.299833     -0.30993795          53
       47.771904      -88.300155     -0.30993795          53
       47.771055      -88.300477     -0.31811380          53
       47.770206      -88.300799     -0.31811380          53
       47.769357      -88.301121     -0.35114622          53
       47.768508      -88.301443     -0.34297037          54
       47.767660      -88.301766     -0.34297037          54
       47.766811      -88.302089     -0.34297037          54
       47.765962      -88.302412     -0.35932207          54
       47.765113      -88.302735     -0.34297037          54
       47.764264      -88.303058     -0.34297037          54
       47.763415      -88.303380     -0.35114622          54
       47.762566      -88.303701     -0.35932207          54
       47.761717      -88.304023     -0.34297037          54
       47.760868      -88.304346     -0.35114622          54
       47.760019      -88.304668     -0.32905579          54
       47.759169      -88.304991     -0.31270409          54
       47.758320      -88.305313     -0.32905579          54
       47.757472      -88.305635     -0.32905579          54
       47.756623      -88.305957     -0.32905579          54
       47.755774      -88.306281     -0.32087994          54
       47.754925      -88.306602     -0.32087994          54
       47.754076      -88.306924     -0.32905579          54
       47.753227      -88.307247     -0.32905579          54
       47.752378      -88.307569     -0.32905579          54
       47.751529      -88.307891     -0.31673145          54
       47.750679      -88.308213     -0.31673145          54
       47.749830      -88.308537     -0.30855560          54
       47.748981      -88.308859     -0.32490730          54
       47.748132      -88.309181     -0.31673145          54
       47.747283      -88.309503     -0.31673145          54
       47.746434      -88.309824     -0.30037975          54
       47.745585      -88.310147     -0.31673145          54
       47.744736      -88.310469     -0.30855560          54
       47.743887      -88.310791     -0.30855560          55
       47.743039      -88.311114     -0.31673145          55
       47.742189      -88.311436     -0.34286976          55
       47.741340      -88.311757     -0.34286976          55
       47.740490      -88.312079     -0.33745432          55
       47.739641      -88.312402     -0.32927847          55
       47.738792      -88.312725     -0.34563017          55
       47.737943      -88.313047     -0.34563017          55
       47.737094      -88.313367     -0.35380602          55
       47.736245      -88.313689     -0.33745432          55
       47.735396      -88.314011     -0.33745432          55
       47.734546      -88.314332     -0.33745432          55
       47.733697      -88.314655     -0.34011078          55
       47.732848      -88.314978     -0.32375908          55
       47.731999      -88.315300     -0.33193493          55
       47.731150      -88.315622     -0.33193493          55
       47.730301      -88.315944     -0.33193493          55
       47.729453      -88.316266     -0.32375908          55
       47.728603      -88.316588     -0.34011078          55
       47.727753      -88.316909     -0.32375908          55
       47.726904      -88.317231     -0.33193493          55
       47.726054      -88.317554     -0.32375908          55
       47.725206      -88.317876     -0.33193493          55
       47.724357      -88.318197     -0.32099771          55
       47.723508      -88.318518     -0.32917356          55
       47.722659      -88.318840     -0.32917356          55
       47.721809      -88.319163     -0.32917356          55
       47.720959      -88.319485     -0.32099771          55
       47.720110      -88.319807     -0.33734941          55
       47.719262      -88.320128     -0.32099771          56
       47.718413      -88.320450     -0.33734941          56
       47.717564      -88.320772     -0.32917356          56
       47.716715      -88.321094     -0.32099771          56
       47.715866      -88.321416     -0.32099771          56
       47.715016      -88.321738     -0.33055210          56
       47.714167      -88.322061     -0.32237625          56
       47.713318      -88.322383     -0.33055210          56
       47.712469      -88.322704     -0.33055210          56
       47.711619      -88.323026     -0.33055210          56
       47.710771      -88.323348     -0.33055210          56
       47.709921      -88.323669     -0.33055210          56
       47.709072      -88.323990     -0.31420040          56
       47.708223      -88.324312     -0.33055210          56
       47.707374      -88.324636     -0.32513809          56
       47.706525      -88.324957     -0.33607531          56
       47.705676      -88.325277     -0.32789946          56
       47.704826      -88.325600     -0.33607531          56
       47.703977      -88.325921     -0.33607531          56
       47.703127      -88.326242     -0.32789946          56
       47.702279      -88.326564     -0.33607531          56
       47.701430      -88.326886     -0.31972361          56
       47.700581      -88.327208     -0.33607531          56
       47.699731      -88.327528     -0.33607531          56
       47.698883      -88.327849     -0.32789946          56
       47.698034      -88.328172     -0.33607531          56
       47.697185      -88.328494     -0.30565548          56
       47.696336      -88.328816     -0.28930378          56
       47.695486      -88.329137     -0.29747963          56
       47.694637      -88.329459     -0.29747963          57
       47.693788      -88.329781     -0.30565548          57
       47.692939      -88.330104     -0.28930378          58
       47.692090      -88.330425     -0.29747963          58
       47.691241      -88.330747     -0.28930378          58
       47.690391      -88.331067     -0.28930378          58
       47.689542      -88.331390     -0.28930378          58
       47.688692      -88.331712     -0.29872513          58
       47.687844      -88.332034     -0.29872513          58
       47.686994      -88.332357     -0.28237343          58
       47.686146      -88.332678     -0.29054928          58
       47.685297      -88.332998     -0.29872513          58
       47.684447      -88.333319     -0.29054928          58
       47.683598      -88.333641     -0.28237343          58
       47.682748      -88.333963     -0.28237343          58
       47.681899      -88.334285     -0.29872513          58
       47.681049      -88.334606     -0.26602173          58
       47.680201      -88.334928     -0.28237343          58
       47.679352      -88.335249     -0.29456282          58
       47.678502      -88.335571     -0.27821112          58
       47.677652      -88.335893     -0.28638697          58
       47.676803      -88.336215     -0.28638697          58
       47.675954      -88.336536     -0.28638697          58
       47.675105      -88.336858     -0.28638697          58
       47.674256      -88.337179     -0.28930378          58
       47.673406      -88.337500     -0.30565548          58
       47.672557      -88.337822     -0.29747963          58
       47.671708      -88.338144     -0.28930378          58
       47.670859      -88.338465     -0.28930378          58
       47.670010      -88.338787     -0.27805901          59
       47.669161      -88.339109     -0.27805901          59
       47.668312      -88.339430     -0.27805901          59
       47.667463      -88.339752     -0.28623486          59
       47.666613      -88.340074     -0.27805901          59
       47.665764      -88.340395     -0.27805901          59
       47.664915      -88.340717     -0.28623486          59
       47.664066      -88.341038     -0.27805901          59
       47.663216      -88.341361     -0.29441071          59
       47.662367      -88.341682     -0.26988316          59
       47.661518      -88.342003     -0.27666950          59
       47.660668      -88.342323     -0.27666950          59
       47.659819      -88.342645     -0.27666950          59
       47.658970      -88.342966     -0.27666950          59
       47.658121      -88.343287     -0.27666950          59
       47.657272      -88.343608     -0.26849365          59
       47.656423      -88.343930     -0.26849365          59
       47.655573      -88.344251     -0.28484535          59
       47.654723      -88.344572     -0.27666950          59
       47.653874      -88.344893     -0.27666950          59
       47.653025      -88.345216     -0.28484535          59
       47.652176      -88.345538     -0.28499794          59
       47.651327      -88.345858     -0.29317379          59
       47.650479      -88.346180     -0.28499794          59
       47.649630      -88.346501     -0.29317379          59
       47.648781      -88.346822     -0.28499794          59
       47.647931      -88.347144     -0.28499794          59
       47.647082      -88.347465     -0.29317379          59
       47.646232      -88.347786     -0.30134964          59
       47.645382      -88.348105     -0.29317379          60
       47.644533      -88.348427     -0.27682209          60
       47.643685      -88.348748     -0.30717182          60
       47.642836      -88.349069     -0.30717182          61
       47.641986      -88.349391     -0.31534767          61
       47.641137      -88.349713     -0.30717182          61
       47.640288      -88.350034     -0.34425116          61
       47.639439      -88.350355     -0.32789946          61
       47.638590      -88.350677     -0.32789946          61
       47.637740      -88.350999     -0.32789946          61
       47.636891      -88.351319     -0.34425116          61
       47.636042      -88.351640     -0.33607531          61
       47.635193      -88.351961     -0.33607531          61
       47.634344      -88.352282     -0.31811380          61
       47.633494      -88.352603     -0.30993795          61
       47.632645      -88.352924     -0.30993795          61
       47.631795      -88.353246     -0.30993795          61
       47.630945      -88.353566     -0.30993795          61
       47.630097      -88.353887     -0.30176210          61
       47.629248      -88.354208     -0.30993795          61
       47.628399      -88.354529     -0.31811380          61
       47.627550      -88.354851     -0.30993795          61
       47.626701      -88.355172     -0.30993795          61
       47.625852      -88.355493     -0.31811380          61
       47.625002      -88.355814     -0.28237343          61
       47.624153      -88.356135     -0.29054928          61
       47.623304      -88.356455     -0.29872513          61
       47.622454      -88.356776     -0.28237343          61
       47.621605      -88.357097     -0.28237343          62
       47.620756      -88.357419     -0.29054928          62
       47.619906      -88.357740     -0.29054928          62
       47.619057      -88.358061     -0.29872513          62
       47.618208      -88.358381     -0.29054928          62
       47.617359      -88.358703     -0.28237343          62
       47.616510      -88.359024     -0.27944708          62
       47.615661      -88.359346     -0.26309538          62
       47.614811      -88.359666     -0.28762293          62
       47.613962      -88.359986     -0.27127123          62
       47.613112      -88.360307     -0.27944708          62
       47.612263      -88.360627     -0.28762293          62
       47.611414      -88.360949     -0.28762293          62
       47.610565      -88.361270     -0.28762293          62
       47.609715      -88.361590     -0.28762293          62
       47.608866      -88.361911     -0.27127123          62
       47.608017      -88.362233     -0.27944708          62
       47.607168      -88.362555     -0.30855560          62
       47.606318      -88.362875     -0.30037975          62
       47.605470      -88.363196     -0.30855560          62
       47.604621      -88.363517     -0.30855560          62
       47.603772      -88.363837     -0.30855560          62
       47.602922      -88.364159     -0.30855560          62
       47.602073      -88.364480     -0.30855560          62
       47.601224      -88.364800     -0.30037975          62
       47.600375      -88.365122     -0.30855560          62
       47.599526      -88.365442     -0.31673145          62
       47.598676      -88.365762     -0.30578661          62
       47.597827      -88.366082     -0.31396246          62
       47.596979      -88.366403     -0.29761076          64
       47.596130      -88.366724     -0.30578661          64
       47.595280      -88.367044     -0.29761076          64
       47.594432      -88.367365     -0.31396246          64
       47.593582      -88.367686     -0.29761076          64
       47.592733      -88.368008     -0.30578661          64
       47.591883      -88.368328     -0.29761076          63
       47.591034      -88.368648     -0.31396246          63
       47.590185      -88.368969     -0.29761076          63
       47.589336      -88.369290     -0.29068804          63
       47.588487      -88.369610     -0.28251219          63
       47.587638      -88.369930     -0.29068804          63
       47.586788      -88.370250     -0.29068804          63
       47.585939      -88.370571     -0.28251219          63
       47.585089      -88.370892     -0.28251219          63
       47.584240      -88.371213     -0.28251219          63
       47.583391      -88.371534     -0.29068804          63
       47.582542      -88.371854     -0.28251219          63
       47.581692      -88.372175     -0.28251219          63
       47.580844      -88.372496     -0.29886389          63
       47.579995      -88.372816     -0.28098679          63
       47.579145      -88.373137     -0.28098679          63
       47.578295      -88.373458     -0.28098679          63
       47.577446      -88.373778     -0.28098679          63
       47.576596      -88.374098     -0.28098679          63
       47.575747      -88.374418     -0.28098679          63
       47.574898      -88.374739     -0.28098679          63
       47.574048      -88.375060     -0.28098679          63
       47.573199      -88.375381     -0.29207230          63
       47.572350      -88.375702     -0.28389645          65
       47.571501      -88.376021     -0.28528404          65
       47.570652      -88.376342     -0.29345989          65
       47.569803      -88.376663     -0.29345989          65
       47.568953      -88.376984     -0.29345989          65
       47.568103      -88.377306     -0.27710819          65
       47.567254      -88.377626     -0.29345989          65
       47.566404      -88.377946     -0.28528404          65
       47.565555      -88.378266     -0.28528404          65
       47.564705      -88.378586     -0.28528404          65
       47.563856      -88.378906     -0.29345989          65
       47.563007      -88.379227     -0.29345989          65
       47.562157      -88.379547     -0.27433634          65
       47.561308      -88.379868     -0.28251219          65
       47.560458      -88.380189     -0.29068804          65
       47.559608      -88.380508     -0.29068804          65
       47.558759      -88.380830     -0.28251219          65
       47.557910      -88.381150     -0.28251219          65
       47.557061      -88.381471     -0.28251219          65
       47.556212      -88.381791     -0.28251219          65
       47.555362      -88.382112     -0.29886389          65
       47.554512      -88.382431     -0.28251219          65
       47.553663      -88.382751     -0.28514624          65
       47.552814      -88.383072     -0.27697039          65
       47.551965      -88.383393     -0.28514624          65
       47.551115      -88.383714     -0.27697039          65
       47.550266      -88.384034     -0.27697039          65
       47.549417      -88.384354     -0.28514624          65
       47.548567      -88.384674     -0.28514624          65
       47.547718      -88.384996     -0.27697039          66
       47.546868      -88.385316     -0.28514624          66
       47.546019      -88.385635     -0.27697039          66
       47.545170      -88.385956     -0.27697039          66
       47.544321      -88.386276     -0.27821112          66
       47.543472      -88.386597     -0.27003527          66
       47.542623      -88.386917     -0.27821112          66
       47.541773      -88.387239     -0.27003527          67
       47.540924      -88.387558     -0.26185942          67
       47.540075      -88.387878     -0.27974129          67
       47.539226      -88.388198     -0.27974129          67
       47.538377      -88.388519     -0.27974129          67
       47.537527      -88.388838     -0.28791714          67
       47.536678      -88.389158     -0.27974129          67
       47.535829      -88.389479     -0.27156544          67
       47.534979      -88.389799     -0.25353146          67
       47.534130      -88.390120     -0.25353146          67
       47.533281      -88.390440     -0.25353146          67
       47.532433      -88.390759     -0.26170731          67
       47.531584      -88.391080     -0.26170731          67
       47.530734      -88.391401     -0.26170731          67
       47.529885      -88.391721     -0.25353146          67
       47.529036      -88.392040     -0.26170731          67
       47.528186      -88.392360     -0.26170731          67
       47.527337      -88.392681     -0.25353146          67
       47.526488      -88.393002     -0.29773569          67
       47.525638      -88.393322     -0.29773569          67
       47.524789      -88.393641     -0.29773569          67
       47.523940      -88.393962     -0.29773569          67
       47.523091      -88.394282     -0.30591154          68
       47.522241      -88.394602     -0.29773569          68
       47.521391      -88.394923     -0.29773569          68
       47.520542      -88.395242     -0.28955984          68
       47.519693      -88.395562     -0.29773569          68
       47.518844      -88.395883     -0.29773569          68
       47.517995      -88.396204     -0.30591154          68
       47.517145      -88.396523     -0.26710367          68
       47.516295      -88.396844     -0.26710367          68
       47.515446      -88.397164     -0.25075197          68
       47.514596      -88.397484     -0.25892782          68
       47.513747      -88.397804     -0.25892782          68
       47.512898      -88.398124     -0.25892782          68
       47.512049      -88.398443     -0.25892782          68
       47.511199      -88.398764     -0.25892782          68
       47.510349      -88.399084     -0.25892782          68
       47.509500      -88.399404     -0.26710367          68
       47.508651      -88.399724     -0.26710367          68
       47.507801      -88.400044     -0.25892782          68
       47.506951      -88.400364     -0.25075197          68
       47.506101      -88.400684     -0.26170731          68
       47.505253      -88.401005     -0.26170731          68
       47.504404      -88.401325     -0.26988316          68
       47.503555      -88.401644     -0.26170731          68
       47.502704      -88.401964     -0.26988316          68
       47.501854      -88.402285     -0.26170731          68
       47.501004      -88.402605     -0.26170731          68
       47.500155      -88.402925     -0.26988316          68
       47.499306      -88.403245     -0.26309538          68
       47.498457      -88.403565     -0.27127123          69
       47.497608      -88.403885     -0.25491953          69
       47.496759      -88.404204     -0.27127123          69
       47.495910      -88.404524     -0.27127123          69
       47.495060      -88.404844     -0.27127123          69
       47.494210      -88.405165     -0.27127123          69
       47.493360      -88.405486     -0.27127123          69
       47.492511      -88.405806     -0.26309538          69
       47.491662      -88.406126     -0.26309538          70
       47.490813      -88.406446     -0.26309538          70
       47.489963      -88.406765     -0.27944708          70
       47.489114      -88.407084     -0.27127123          70
       47.488265      -88.407404     -0.27127123          70
       47.487415      -88.407723     -0.27127123          70
       47.486565      -88.408043     -0.27127123          70
       47.485716      -88.408364     -0.26309538          70
       47.484867      -88.408683     -0.27944708          70
       47.484018      -88.409003     -0.27127123          70
       47.483169      -88.409323     -0.26309538          70
       47.482320      -88.409642     -0.27127123          70
       47.481471      -88.409962     -0.27127123          70
       47.480621      -88.410282     -0.27127123          70
       47.479770      -88.410602     -0.27127123          70
       47.478921      -88.410923     -0.27127123          70
       47.478072      -88.411242     -0.27127123          70
       47.477223      -88.411562     -0.27127123          70
       47.476374      -88.411882     -0.27127123          70
       47.475524      -88.412201     -0.26309538          70
       47.474675      -88.412520     -0.26309538          70
       47.473825      -88.412840     -0.27127123          71
       47.472976      -88.413161     -0.27821112          71
       47.472126      -88.413480     -0.26587343          71
       47.471276      -88.413800     -0.27404928          71
       47.470427      -88.414120     -0.27404928          71
       47.469578      -88.414439     -0.26587343          71
       47.468728      -88.414759     -0.26587343          71
       47.467879      -88.415078     -0.26587343          71
       47.467029      -88.415398     -0.26587343          71
       47.466180      -88.415717     -0.27404928          71
       47.465331      -88.416037     -0.26587343          71
       47.464481      -88.416356     -0.27404928          71
       47.463632      -88.416676     -0.25754070          71
